<?xml version="1.0" encoding="UTF-8" standalone="yes"?>
<PMML xmlns="http://www.dmg.org/PMML-4_4" xmlns:data="http://jpmml.org/jpmml-model/InlineTable" version="4.4">
	<Header>
		<Application name="SkLearn2PMML package" version="0.90.4"/>
		<Timestamp>2023-08-11T19:32:40Z</Timestamp>
	</Header>
	<MiningBuildTask>
		<Extension name="repr">PMMLPipeline(steps=[('sc', StandardScaler()),
       ('pca', PCA()),
       ('classifier', LogisticRegression())])</Extension>
	</MiningBuildTask>
	<DataDictionary>
		<DataField name="0" optype="categorical" dataType="integer">
			<Value value="0"/>
			<Value value="1"/>
			<Value value="2"/>
			<Value value="3"/>
			<Value value="4"/>
			<Value value="5"/>
			<Value value="6"/>
			<Value value="7"/>
			<Value value="8"/>
			<Value value="9"/>
			<Value value="10"/>
			<Value value="11"/>
			<Value value="12"/>
			<Value value="13"/>
			<Value value="14"/>
			<Value value="15"/>
			<Value value="16"/>
			<Value value="17"/>
			<Value value="18"/>
			<Value value="19"/>
			<Value value="20"/>
		</DataField>
		<DataField name="ACS" optype="continuous" dataType="double"/>
		<DataField name="KD" optype="continuous" dataType="double"/>
		<DataField name="ADR" optype="continuous" dataType="double"/>
		<DataField name="KPR" optype="continuous" dataType="double"/>
		<DataField name="APR" optype="continuous" dataType="double"/>
		<DataField name="FKPR" optype="continuous" dataType="double"/>
	</DataDictionary>
	<RegressionModel functionName="classification" algorithmName="sklearn.linear_model._logistic.LogisticRegression" normalizationMethod="softmax">
		<MiningSchema>
			<MiningField name="0" usageType="target"/>
			<MiningField name="ACS"/>
			<MiningField name="KD"/>
			<MiningField name="ADR"/>
			<MiningField name="KPR"/>
			<MiningField name="APR"/>
			<MiningField name="FKPR"/>
		</MiningSchema>
		<Output>
			<OutputField name="probability(0)" optype="continuous" dataType="double" feature="probability" value="0"/>
			<OutputField name="probability(1)" optype="continuous" dataType="double" feature="probability" value="1"/>
			<OutputField name="probability(2)" optype="continuous" dataType="double" feature="probability" value="2"/>
			<OutputField name="probability(3)" optype="continuous" dataType="double" feature="probability" value="3"/>
			<OutputField name="probability(4)" optype="continuous" dataType="double" feature="probability" value="4"/>
			<OutputField name="probability(5)" optype="continuous" dataType="double" feature="probability" value="5"/>
			<OutputField name="probability(6)" optype="continuous" dataType="double" feature="probability" value="6"/>
			<OutputField name="probability(7)" optype="continuous" dataType="double" feature="probability" value="7"/>
			<OutputField name="probability(8)" optype="continuous" dataType="double" feature="probability" value="8"/>
			<OutputField name="probability(9)" optype="continuous" dataType="double" feature="probability" value="9"/>
			<OutputField name="probability(10)" optype="continuous" dataType="double" feature="probability" value="10"/>
			<OutputField name="probability(11)" optype="continuous" dataType="double" feature="probability" value="11"/>
			<OutputField name="probability(12)" optype="continuous" dataType="double" feature="probability" value="12"/>
			<OutputField name="probability(13)" optype="continuous" dataType="double" feature="probability" value="13"/>
			<OutputField name="probability(14)" optype="continuous" dataType="double" feature="probability" value="14"/>
			<OutputField name="probability(15)" optype="continuous" dataType="double" feature="probability" value="15"/>
			<OutputField name="probability(16)" optype="continuous" dataType="double" feature="probability" value="16"/>
			<OutputField name="probability(17)" optype="continuous" dataType="double" feature="probability" value="17"/>
			<OutputField name="probability(18)" optype="continuous" dataType="double" feature="probability" value="18"/>
			<OutputField name="probability(19)" optype="continuous" dataType="double" feature="probability" value="19"/>
			<OutputField name="probability(20)" optype="continuous" dataType="double" feature="probability" value="20"/>
		</Output>
		<LocalTransformations>
			<DerivedField name="standardScaler(ACS)" optype="continuous" dataType="double">
				<Apply function="/">
					<Apply function="-">
						<FieldRef field="ACS"/>
						<Constant dataType="double">202.90454433497536</Constant>
					</Apply>
					<Constant dataType="double">33.1615329304125</Constant>
				</Apply>
			</DerivedField>
			<DerivedField name="standardScaler(KD)" optype="continuous" dataType="double">
				<Apply function="/">
					<Apply function="-">
						<FieldRef field="KD"/>
						<Constant dataType="double">1.0219987684729066</Constant>
					</Apply>
					<Constant dataType="double">0.2064554425346494</Constant>
				</Apply>
			</DerivedField>
			<DerivedField name="standardScaler(ADR)" optype="continuous" dataType="double">
				<Apply function="/">
					<Apply function="-">
						<FieldRef field="ADR"/>
						<Constant dataType="double">132.99354679802957</Constant>
					</Apply>
					<Constant dataType="double">20.54133571933698</Constant>
				</Apply>
			</DerivedField>
			<DerivedField name="standardScaler(KPR)" optype="continuous" dataType="double">
				<Apply function="/">
					<Apply function="-">
						<FieldRef field="KPR"/>
						<Constant dataType="double">0.7202635467980295</Constant>
					</Apply>
					<Constant dataType="double">0.192023973516731</Constant>
				</Apply>
			</DerivedField>
			<DerivedField name="standardScaler(APR)" optype="continuous" dataType="double">
				<Apply function="/">
					<Apply function="-">
						<FieldRef field="APR"/>
						<Constant dataType="double">0.2812549261083744</Constant>
					</Apply>
					<Constant dataType="double">0.1309474344123692</Constant>
				</Apply>
			</DerivedField>
			<DerivedField name="standardScaler(FKPR)" optype="continuous" dataType="double">
				<Apply function="/">
					<Apply function="-">
						<FieldRef field="FKPR"/>
						<Constant dataType="double">0.10040640394088671</Constant>
					</Apply>
					<Constant dataType="double">0.05605861955118602</Constant>
				</Apply>
			</DerivedField>
			<DerivedField name="pca(standardScaler(ACS), standardScaler(KD), .., standardScaler(APR), standardScaler(FKPR))[0]" optype="continuous" dataType="double">
				<Apply function="sum">
					<Apply function="*">
						<Apply function="-">
							<FieldRef field="standardScaler(ACS)"/>
							<Constant dataType="double">4.314009467114894E-16</Constant>
						</Apply>
						<Constant dataType="double">0.5079846330721187</Constant>
					</Apply>
					<Apply function="*">
						<Apply function="-">
							<FieldRef field="standardScaler(KD)"/>
							<Constant dataType="double">-9.485570511871289E-16</Constant>
						</Apply>
						<Constant dataType="double">0.4398037478425004</Constant>
					</Apply>
					<Apply function="*">
						<Apply function="-">
							<FieldRef field="standardScaler(ADR)"/>
							<Constant dataType="double">-6.405385253403859E-16</Constant>
						</Apply>
						<Constant dataType="double">0.49346175669536685</Constant>
					</Apply>
					<Apply function="*">
						<Apply function="-">
							<FieldRef field="standardScaler(KPR)"/>
							<Constant dataType="double">2.55077841716834E-16</Constant>
						</Apply>
						<Constant dataType="double">0.3599229856910446</Constant>
					</Apply>
					<Apply function="*">
						<Apply function="-">
							<FieldRef field="standardScaler(APR)"/>
							<Constant dataType="double">3.65334473127884E-17</Constant>
						</Apply>
						<Constant dataType="double">-0.1568925916256773</Constant>
					</Apply>
					<Apply function="*">
						<Apply function="-">
							<FieldRef field="standardScaler(FKPR)"/>
							<Constant dataType="double">-8.838031565488931E-17</Constant>
						</Apply>
						<Constant dataType="double">0.3884069125152382</Constant>
					</Apply>
				</Apply>
			</DerivedField>
			<DerivedField name="pca(standardScaler(ACS), standardScaler(KD), .., standardScaler(APR), standardScaler(FKPR))[1]" optype="continuous" dataType="double">
				<Apply function="sum">
					<Apply function="*">
						<Apply function="-">
							<FieldRef field="standardScaler(ACS)"/>
							<Constant dataType="double">4.314009467114894E-16</Constant>
						</Apply>
						<Constant dataType="double">0.024555718214894065</Constant>
					</Apply>
					<Apply function="*">
						<Apply function="-">
							<FieldRef field="standardScaler(KD)"/>
							<Constant dataType="double">-9.485570511871289E-16</Constant>
						</Apply>
						<Constant dataType="double">0.16073178948063924</Constant>
					</Apply>
					<Apply function="*">
						<Apply function="-">
							<FieldRef field="standardScaler(ADR)"/>
							<Constant dataType="double">-6.405385253403859E-16</Constant>
						</Apply>
						<Constant dataType="double">0.005378391955284015</Constant>
					</Apply>
					<Apply function="*">
						<Apply function="-">
							<FieldRef field="standardScaler(KPR)"/>
							<Constant dataType="double">2.55077841716834E-16</Constant>
						</Apply>
						<Constant dataType="double">0.471242162642285</Constant>
					</Apply>
					<Apply function="*">
						<Apply function="-">
							<FieldRef field="standardScaler(APR)"/>
							<Constant dataType="double">3.65334473127884E-17</Constant>
						</Apply>
						<Constant dataType="double">0.7996884619661777</Constant>
					</Apply>
					<Apply function="*">
						<Apply function="-">
							<FieldRef field="standardScaler(FKPR)"/>
							<Constant dataType="double">-8.838031565488931E-17</Constant>
						</Apply>
						<Constant dataType="double">-0.33460808328501296</Constant>
					</Apply>
				</Apply>
			</DerivedField>
			<DerivedField name="pca(standardScaler(ACS), standardScaler(KD), .., standardScaler(APR), standardScaler(FKPR))[2]" optype="continuous" dataType="double">
				<Apply function="sum">
					<Apply function="*">
						<Apply function="-">
							<FieldRef field="standardScaler(ACS)"/>
							<Constant dataType="double">4.314009467114894E-16</Constant>
						</Apply>
						<Constant dataType="double">-0.11402066136615067</Constant>
					</Apply>
					<Apply function="*">
						<Apply function="-">
							<FieldRef field="standardScaler(KD)"/>
							<Constant dataType="double">-9.485570511871289E-16</Constant>
						</Apply>
						<Constant dataType="double">-0.5488433702401113</Constant>
					</Apply>
					<Apply function="*">
						<Apply function="-">
							<FieldRef field="standardScaler(ADR)"/>
							<Constant dataType="double">-6.405385253403859E-16</Constant>
						</Apply>
						<Constant dataType="double">-0.19092645769130376</Constant>
					</Apply>
					<Apply function="*">
						<Apply function="-">
							<FieldRef field="standardScaler(KPR)"/>
							<Constant dataType="double">2.55077841716834E-16</Constant>
						</Apply>
						<Constant dataType="double">0.436228950260362</Constant>
					</Apply>
					<Apply function="*">
						<Apply function="-">
							<FieldRef field="standardScaler(APR)"/>
							<Constant dataType="double">3.65334473127884E-17</Constant>
						</Apply>
						<Constant dataType="double">0.13577267438765947</Constant>
					</Apply>
					<Apply function="*">
						<Apply function="-">
							<FieldRef field="standardScaler(FKPR)"/>
							<Constant dataType="double">-8.838031565488931E-17</Constant>
						</Apply>
						<Constant dataType="double">0.6637675913472412</Constant>
					</Apply>
				</Apply>
			</DerivedField>
			<DerivedField name="pca(standardScaler(ACS), standardScaler(KD), .., standardScaler(APR), standardScaler(FKPR))[3]" optype="continuous" dataType="double">
				<Apply function="sum">
					<Apply function="*">
						<Apply function="-">
							<FieldRef field="standardScaler(ACS)"/>
							<Constant dataType="double">4.314009467114894E-16</Constant>
						</Apply>
						<Constant dataType="double">-0.26573593486266256</Constant>
					</Apply>
					<Apply function="*">
						<Apply function="-">
							<FieldRef field="standardScaler(KD)"/>
							<Constant dataType="double">-9.485570511871289E-16</Constant>
						</Apply>
						<Constant dataType="double">0.17011234969589403</Constant>
					</Apply>
					<Apply function="*">
						<Apply function="-">
							<FieldRef field="standardScaler(ADR)"/>
							<Constant dataType="double">-6.405385253403859E-16</Constant>
						</Apply>
						<Constant dataType="double">-0.2861446240790405</Constant>
					</Apply>
					<Apply function="*">
						<Apply function="-">
							<FieldRef field="standardScaler(KPR)"/>
							<Constant dataType="double">2.55077841716834E-16</Constant>
						</Apply>
						<Constant dataType="double">0.6568875057977834</Constant>
					</Apply>
					<Apply function="*">
						<Apply function="-">
							<FieldRef field="standardScaler(APR)"/>
							<Constant dataType="double">3.65334473127884E-17</Constant>
						</Apply>
						<Constant dataType="double">-0.5402782214932573</Constant>
					</Apply>
					<Apply function="*">
						<Apply function="-">
							<FieldRef field="standardScaler(FKPR)"/>
							<Constant dataType="double">-8.838031565488931E-17</Constant>
						</Apply>
						<Constant dataType="double">-0.3084893898031564</Constant>
					</Apply>
				</Apply>
			</DerivedField>
			<DerivedField name="pca(standardScaler(ACS), standardScaler(KD), .., standardScaler(APR), standardScaler(FKPR))[4]" optype="continuous" dataType="double">
				<Apply function="sum">
					<Apply function="*">
						<Apply function="-">
							<FieldRef field="standardScaler(ACS)"/>
							<Constant dataType="double">4.314009467114894E-16</Constant>
						</Apply>
						<Constant dataType="double">-0.23143841474533897</Constant>
					</Apply>
					<Apply function="*">
						<Apply function="-">
							<FieldRef field="standardScaler(KD)"/>
							<Constant dataType="double">-9.485570511871289E-16</Constant>
						</Apply>
						<Constant dataType="double">0.6607723734335422</Constant>
					</Apply>
					<Apply function="*">
						<Apply function="-">
							<FieldRef field="standardScaler(ADR)"/>
							<Constant dataType="double">-6.405385253403859E-16</Constant>
						</Apply>
						<Constant dataType="double">-0.5226569737368585</Constant>
					</Apply>
					<Apply function="*">
						<Apply function="-">
							<FieldRef field="standardScaler(KPR)"/>
							<Constant dataType="double">2.55077841716834E-16</Constant>
						</Apply>
						<Constant dataType="double">-0.16275523262806413</Constant>
					</Apply>
					<Apply function="*">
						<Apply function="-">
							<FieldRef field="standardScaler(APR)"/>
							<Constant dataType="double">3.65334473127884E-17</Constant>
						</Apply>
						<Constant dataType="double">0.15433921505696732</Constant>
					</Apply>
					<Apply function="*">
						<Apply function="-">
							<FieldRef field="standardScaler(FKPR)"/>
							<Constant dataType="double">-8.838031565488931E-17</Constant>
						</Apply>
						<Constant dataType="double">0.4316664909848589</Constant>
					</Apply>
				</Apply>
			</DerivedField>
			<DerivedField name="pca(standardScaler(ACS), standardScaler(KD), .., standardScaler(APR), standardScaler(FKPR))[5]" optype="continuous" dataType="double">
				<Apply function="sum">
					<Apply function="*">
						<Apply function="-">
							<FieldRef field="standardScaler(ACS)"/>
							<Constant dataType="double">4.314009467114894E-16</Constant>
						</Apply>
						<Constant dataType="double">-0.7772828257140331</Constant>
					</Apply>
					<Apply function="*">
						<Apply function="-">
							<FieldRef field="standardScaler(KD)"/>
							<Constant dataType="double">-9.485570511871289E-16</Constant>
						</Apply>
						<Constant dataType="double">0.11811252755513996</Constant>
					</Apply>
					<Apply function="*">
						<Apply function="-">
							<FieldRef field="standardScaler(ADR)"/>
							<Constant dataType="double">-6.405385253403859E-16</Constant>
						</Apply>
						<Constant dataType="double">0.6041229984427368</Constant>
					</Apply>
					<Apply function="*">
						<Apply function="-">
							<FieldRef field="standardScaler(KPR)"/>
							<Constant dataType="double">2.55077841716834E-16</Constant>
						</Apply>
						<Constant dataType="double">0.010005521133941264</Constant>
					</Apply>
					<Apply function="*">
						<Apply function="-">
							<FieldRef field="standardScaler(APR)"/>
							<Constant dataType="double">3.65334473127884E-17</Constant>
						</Apply>
						<Constant dataType="double">0.04156572453900758</Constant>
					</Apply>
					<Apply function="*">
						<Apply function="-">
							<FieldRef field="standardScaler(FKPR)"/>
							<Constant dataType="double">-8.838031565488931E-17</Constant>
						</Apply>
						<Constant dataType="double">0.12283494017374294</Constant>
					</Apply>
				</Apply>
			</DerivedField>
		</LocalTransformations>
		<RegressionTable intercept="0.5191731671452369" targetCategory="0">
			<NumericPredictor name="pca(standardScaler(ACS), standardScaler(KD), .., standardScaler(APR), standardScaler(FKPR))[0]" coefficient="-0.84857708361146"/>
			<NumericPredictor name="pca(standardScaler(ACS), standardScaler(KD), .., standardScaler(APR), standardScaler(FKPR))[1]" coefficient="2.0994466344782245"/>
			<NumericPredictor name="pca(standardScaler(ACS), standardScaler(KD), .., standardScaler(APR), standardScaler(FKPR))[2]" coefficient="-0.4373024231799322"/>
			<NumericPredictor name="pca(standardScaler(ACS), standardScaler(KD), .., standardScaler(APR), standardScaler(FKPR))[3]" coefficient="-4.113931660197133"/>
			<NumericPredictor name="pca(standardScaler(ACS), standardScaler(KD), .., standardScaler(APR), standardScaler(FKPR))[4]" coefficient="0.22372646319617656"/>
			<NumericPredictor name="pca(standardScaler(ACS), standardScaler(KD), .., standardScaler(APR), standardScaler(FKPR))[5]" coefficient="-2.177446098196907"/>
		</RegressionTable>
		<RegressionTable intercept="0.16823066897318517" targetCategory="1">
			<NumericPredictor name="pca(standardScaler(ACS), standardScaler(KD), .., standardScaler(APR), standardScaler(FKPR))[0]" coefficient="1.2871801298085161"/>
			<NumericPredictor name="pca(standardScaler(ACS), standardScaler(KD), .., standardScaler(APR), standardScaler(FKPR))[1]" coefficient="-1.3149996222233147"/>
			<NumericPredictor name="pca(standardScaler(ACS), standardScaler(KD), .., standardScaler(APR), standardScaler(FKPR))[2]" coefficient="1.9358516654669018"/>
			<NumericPredictor name="pca(standardScaler(ACS), standardScaler(KD), .., standardScaler(APR), standardScaler(FKPR))[3]" coefficient="-0.3319102850493119"/>
			<NumericPredictor name="pca(standardScaler(ACS), standardScaler(KD), .., standardScaler(APR), standardScaler(FKPR))[4]" coefficient="-3.224528341293867"/>
			<NumericPredictor name="pca(standardScaler(ACS), standardScaler(KD), .., standardScaler(APR), standardScaler(FKPR))[5]" coefficient="1.3021951271847065"/>
		</RegressionTable>
		<RegressionTable intercept="-2.400524250992042" targetCategory="2">
			<NumericPredictor name="pca(standardScaler(ACS), standardScaler(KD), .., standardScaler(APR), standardScaler(FKPR))[0]" coefficient="1.8809709775710302"/>
			<NumericPredictor name="pca(standardScaler(ACS), standardScaler(KD), .., standardScaler(APR), standardScaler(FKPR))[1]" coefficient="-4.828230844320226"/>
			<NumericPredictor name="pca(standardScaler(ACS), standardScaler(KD), .., standardScaler(APR), standardScaler(FKPR))[2]" coefficient="0.6758697538622874"/>
			<NumericPredictor name="pca(standardScaler(ACS), standardScaler(KD), .., standardScaler(APR), standardScaler(FKPR))[3]" coefficient="4.2276702884693105"/>
			<NumericPredictor name="pca(standardScaler(ACS), standardScaler(KD), .., standardScaler(APR), standardScaler(FKPR))[4]" coefficient="-0.6624580009585852"/>
			<NumericPredictor name="pca(standardScaler(ACS), standardScaler(KD), .., standardScaler(APR), standardScaler(FKPR))[5]" coefficient="1.2808731789390024"/>
		</RegressionTable>
		<RegressionTable intercept="-1.8996290785839327" targetCategory="3">
			<NumericPredictor name="pca(standardScaler(ACS), standardScaler(KD), .., standardScaler(APR), standardScaler(FKPR))[0]" coefficient="1.9424017799796178"/>
			<NumericPredictor name="pca(standardScaler(ACS), standardScaler(KD), .., standardScaler(APR), standardScaler(FKPR))[1]" coefficient="-3.760145476720564"/>
			<NumericPredictor name="pca(standardScaler(ACS), standardScaler(KD), .., standardScaler(APR), standardScaler(FKPR))[2]" coefficient="2.918773953762419"/>
			<NumericPredictor name="pca(standardScaler(ACS), standardScaler(KD), .., standardScaler(APR), standardScaler(FKPR))[3]" coefficient="2.5830748989184236"/>
			<NumericPredictor name="pca(standardScaler(ACS), standardScaler(KD), .., standardScaler(APR), standardScaler(FKPR))[4]" coefficient="-1.0151239487772417"/>
			<NumericPredictor name="pca(standardScaler(ACS), standardScaler(KD), .., standardScaler(APR), standardScaler(FKPR))[5]" coefficient="-0.2139730692685879"/>
		</RegressionTable>
		<RegressionTable intercept="0.08211802600097413" targetCategory="4">
			<NumericPredictor name="pca(standardScaler(ACS), standardScaler(KD), .., standardScaler(APR), standardScaler(FKPR))[0]" coefficient="0.5607931644052551"/>
			<NumericPredictor name="pca(standardScaler(ACS), standardScaler(KD), .., standardScaler(APR), standardScaler(FKPR))[1]" coefficient="-1.9207245406964606"/>
			<NumericPredictor name="pca(standardScaler(ACS), standardScaler(KD), .., standardScaler(APR), standardScaler(FKPR))[2]" coefficient="-1.0731380900804997"/>
			<NumericPredictor name="pca(standardScaler(ACS), standardScaler(KD), .., standardScaler(APR), standardScaler(FKPR))[3]" coefficient="2.949045746160879"/>
			<NumericPredictor name="pca(standardScaler(ACS), standardScaler(KD), .., standardScaler(APR), standardScaler(FKPR))[4]" coefficient="-2.406044874677076"/>
			<NumericPredictor name="pca(standardScaler(ACS), standardScaler(KD), .., standardScaler(APR), standardScaler(FKPR))[5]" coefficient="5.424874360730748"/>
		</RegressionTable>
		<RegressionTable intercept="2.6026935426693436" targetCategory="5">
			<NumericPredictor name="pca(standardScaler(ACS), standardScaler(KD), .., standardScaler(APR), standardScaler(FKPR))[0]" coefficient="-0.42940290695084243"/>
			<NumericPredictor name="pca(standardScaler(ACS), standardScaler(KD), .., standardScaler(APR), standardScaler(FKPR))[1]" coefficient="1.2353789561864161"/>
			<NumericPredictor name="pca(standardScaler(ACS), standardScaler(KD), .., standardScaler(APR), standardScaler(FKPR))[2]" coefficient="-0.5486652924607753"/>
			<NumericPredictor name="pca(standardScaler(ACS), standardScaler(KD), .., standardScaler(APR), standardScaler(FKPR))[3]" coefficient="-0.109563409442541"/>
			<NumericPredictor name="pca(standardScaler(ACS), standardScaler(KD), .., standardScaler(APR), standardScaler(FKPR))[4]" coefficient="-0.00884087450668895"/>
			<NumericPredictor name="pca(standardScaler(ACS), standardScaler(KD), .., standardScaler(APR), standardScaler(FKPR))[5]" coefficient="0.372016093726486"/>
		</RegressionTable>
		<RegressionTable intercept="1.3047260886168597" targetCategory="6">
			<NumericPredictor name="pca(standardScaler(ACS), standardScaler(KD), .., standardScaler(APR), standardScaler(FKPR))[0]" coefficient="-1.0549421464117281"/>
			<NumericPredictor name="pca(standardScaler(ACS), standardScaler(KD), .., standardScaler(APR), standardScaler(FKPR))[1]" coefficient="-0.5024377190435891"/>
			<NumericPredictor name="pca(standardScaler(ACS), standardScaler(KD), .., standardScaler(APR), standardScaler(FKPR))[2]" coefficient="-4.472785483624975"/>
			<NumericPredictor name="pca(standardScaler(ACS), standardScaler(KD), .., standardScaler(APR), standardScaler(FKPR))[3]" coefficient="-3.7223791103121795"/>
			<NumericPredictor name="pca(standardScaler(ACS), standardScaler(KD), .., standardScaler(APR), standardScaler(FKPR))[4]" coefficient="-1.0151934993224643"/>
			<NumericPredictor name="pca(standardScaler(ACS), standardScaler(KD), .., standardScaler(APR), standardScaler(FKPR))[5]" coefficient="3.6349078441378295"/>
		</RegressionTable>
		<RegressionTable intercept="0.9432014838611227" targetCategory="7">
			<NumericPredictor name="pca(standardScaler(ACS), standardScaler(KD), .., standardScaler(APR), standardScaler(FKPR))[0]" coefficient="-1.3648129729931602"/>
			<NumericPredictor name="pca(standardScaler(ACS), standardScaler(KD), .., standardScaler(APR), standardScaler(FKPR))[1]" coefficient="2.265356327961851"/>
			<NumericPredictor name="pca(standardScaler(ACS), standardScaler(KD), .., standardScaler(APR), standardScaler(FKPR))[2]" coefficient="-1.2010124946335676"/>
			<NumericPredictor name="pca(standardScaler(ACS), standardScaler(KD), .., standardScaler(APR), standardScaler(FKPR))[3]" coefficient="-0.48137709461645223"/>
			<NumericPredictor name="pca(standardScaler(ACS), standardScaler(KD), .., standardScaler(APR), standardScaler(FKPR))[4]" coefficient="0.9336204063603074"/>
			<NumericPredictor name="pca(standardScaler(ACS), standardScaler(KD), .., standardScaler(APR), standardScaler(FKPR))[5]" coefficient="-1.1323645377103992"/>
		</RegressionTable>
		<RegressionTable intercept="1.4909060280211983" targetCategory="8">
			<NumericPredictor name="pca(standardScaler(ACS), standardScaler(KD), .., standardScaler(APR), standardScaler(FKPR))[0]" coefficient="-0.8508850306141922"/>
			<NumericPredictor name="pca(standardScaler(ACS), standardScaler(KD), .., standardScaler(APR), standardScaler(FKPR))[1]" coefficient="1.9982086342514538"/>
			<NumericPredictor name="pca(standardScaler(ACS), standardScaler(KD), .., standardScaler(APR), standardScaler(FKPR))[2]" coefficient="-0.36485357894558407"/>
			<NumericPredictor name="pca(standardScaler(ACS), standardScaler(KD), .., standardScaler(APR), standardScaler(FKPR))[3]" coefficient="-1.2660004529582505"/>
			<NumericPredictor name="pca(standardScaler(ACS), standardScaler(KD), .., standardScaler(APR), standardScaler(FKPR))[4]" coefficient="1.6700254590499988"/>
			<NumericPredictor name="pca(standardScaler(ACS), standardScaler(KD), .., standardScaler(APR), standardScaler(FKPR))[5]" coefficient="-2.6986521772822822"/>
		</RegressionTable>
		<RegressionTable intercept="1.7204898244778555" targetCategory="9">
			<NumericPredictor name="pca(standardScaler(ACS), standardScaler(KD), .., standardScaler(APR), standardScaler(FKPR))[0]" coefficient="-0.8426775613206203"/>
			<NumericPredictor name="pca(standardScaler(ACS), standardScaler(KD), .., standardScaler(APR), standardScaler(FKPR))[1]" coefficient="1.8529736128425707"/>
			<NumericPredictor name="pca(standardScaler(ACS), standardScaler(KD), .., standardScaler(APR), standardScaler(FKPR))[2]" coefficient="-0.9616328241548815"/>
			<NumericPredictor name="pca(standardScaler(ACS), standardScaler(KD), .., standardScaler(APR), standardScaler(FKPR))[3]" coefficient="-0.038251965561806156"/>
			<NumericPredictor name="pca(standardScaler(ACS), standardScaler(KD), .., standardScaler(APR), standardScaler(FKPR))[4]" coefficient="1.2361703624580094"/>
			<NumericPredictor name="pca(standardScaler(ACS), standardScaler(KD), .., standardScaler(APR), standardScaler(FKPR))[5]" coefficient="0.9321780618391493"/>
		</RegressionTable>
		<RegressionTable intercept="2.071934074571277" targetCategory="10">
			<NumericPredictor name="pca(standardScaler(ACS), standardScaler(KD), .., standardScaler(APR), standardScaler(FKPR))[0]" coefficient="-0.6315330827140937"/>
			<NumericPredictor name="pca(standardScaler(ACS), standardScaler(KD), .., standardScaler(APR), standardScaler(FKPR))[1]" coefficient="1.3839367575686803"/>
			<NumericPredictor name="pca(standardScaler(ACS), standardScaler(KD), .., standardScaler(APR), standardScaler(FKPR))[2]" coefficient="-0.12150412118376507"/>
			<NumericPredictor name="pca(standardScaler(ACS), standardScaler(KD), .., standardScaler(APR), standardScaler(FKPR))[3]" coefficient="-0.03048040575821545"/>
			<NumericPredictor name="pca(standardScaler(ACS), standardScaler(KD), .., standardScaler(APR), standardScaler(FKPR))[4]" coefficient="0.8477178127796321"/>
			<NumericPredictor name="pca(standardScaler(ACS), standardScaler(KD), .., standardScaler(APR), standardScaler(FKPR))[5]" coefficient="-1.333491178671096"/>
		</RegressionTable>
		<RegressionTable intercept="1.5509436959251253" targetCategory="11">
			<NumericPredictor name="pca(standardScaler(ACS), standardScaler(KD), .., standardScaler(APR), standardScaler(FKPR))[0]" coefficient="-0.7360861817419003"/>
			<NumericPredictor name="pca(standardScaler(ACS), standardScaler(KD), .., standardScaler(APR), standardScaler(FKPR))[1]" coefficient="1.565119729614329"/>
			<NumericPredictor name="pca(standardScaler(ACS), standardScaler(KD), .., standardScaler(APR), standardScaler(FKPR))[2]" coefficient="-0.2351166828247234"/>
			<NumericPredictor name="pca(standardScaler(ACS), standardScaler(KD), .., standardScaler(APR), standardScaler(FKPR))[3]" coefficient="-0.9776570828034635"/>
			<NumericPredictor name="pca(standardScaler(ACS), standardScaler(KD), .., standardScaler(APR), standardScaler(FKPR))[4]" coefficient="1.9719852600400398"/>
			<NumericPredictor name="pca(standardScaler(ACS), standardScaler(KD), .., standardScaler(APR), standardScaler(FKPR))[5]" coefficient="-1.5296379695593267"/>
		</RegressionTable>
		<RegressionTable intercept="0.5519830440893375" targetCategory="12">
			<NumericPredictor name="pca(standardScaler(ACS), standardScaler(KD), .., standardScaler(APR), standardScaler(FKPR))[0]" coefficient="-0.8566140038828518"/>
			<NumericPredictor name="pca(standardScaler(ACS), standardScaler(KD), .., standardScaler(APR), standardScaler(FKPR))[1]" coefficient="2.283748300476678"/>
			<NumericPredictor name="pca(standardScaler(ACS), standardScaler(KD), .., standardScaler(APR), standardScaler(FKPR))[2]" coefficient="-0.8314755566800118"/>
			<NumericPredictor name="pca(standardScaler(ACS), standardScaler(KD), .., standardScaler(APR), standardScaler(FKPR))[3]" coefficient="-2.070254751432023"/>
			<NumericPredictor name="pca(standardScaler(ACS), standardScaler(KD), .., standardScaler(APR), standardScaler(FKPR))[4]" coefficient="0.8894678475112352"/>
			<NumericPredictor name="pca(standardScaler(ACS), standardScaler(KD), .., standardScaler(APR), standardScaler(FKPR))[5]" coefficient="-1.7375542763223233"/>
		</RegressionTable>
		<RegressionTable intercept="0.7766119427214571" targetCategory="13">
			<NumericPredictor name="pca(standardScaler(ACS), standardScaler(KD), .., standardScaler(APR), standardScaler(FKPR))[0]" coefficient="0.12354776945494336"/>
			<NumericPredictor name="pca(standardScaler(ACS), standardScaler(KD), .., standardScaler(APR), standardScaler(FKPR))[1]" coefficient="-0.5969162871280265"/>
			<NumericPredictor name="pca(standardScaler(ACS), standardScaler(KD), .., standardScaler(APR), standardScaler(FKPR))[2]" coefficient="-0.19599201809790148"/>
			<NumericPredictor name="pca(standardScaler(ACS), standardScaler(KD), .., standardScaler(APR), standardScaler(FKPR))[3]" coefficient="2.5020292334955605"/>
			<NumericPredictor name="pca(standardScaler(ACS), standardScaler(KD), .., standardScaler(APR), standardScaler(FKPR))[4]" coefficient="0.12724427968603225"/>
			<NumericPredictor name="pca(standardScaler(ACS), standardScaler(KD), .., standardScaler(APR), standardScaler(FKPR))[5]" coefficient="2.081416361628265"/>
		</RegressionTable>
		<RegressionTable intercept="-2.2445967495565005" targetCategory="14">
			<NumericPredictor name="pca(standardScaler(ACS), standardScaler(KD), .., standardScaler(APR), standardScaler(FKPR))[0]" coefficient="1.0094668040512345"/>
			<NumericPredictor name="pca(standardScaler(ACS), standardScaler(KD), .., standardScaler(APR), standardScaler(FKPR))[1]" coefficient="-2.023750322476732"/>
			<NumericPredictor name="pca(standardScaler(ACS), standardScaler(KD), .., standardScaler(APR), standardScaler(FKPR))[2]" coefficient="1.4347011278007542"/>
			<NumericPredictor name="pca(standardScaler(ACS), standardScaler(KD), .., standardScaler(APR), standardScaler(FKPR))[3]" coefficient="0.8828928285537172"/>
			<NumericPredictor name="pca(standardScaler(ACS), standardScaler(KD), .., standardScaler(APR), standardScaler(FKPR))[4]" coefficient="0.5473906011692629"/>
			<NumericPredictor name="pca(standardScaler(ACS), standardScaler(KD), .., standardScaler(APR), standardScaler(FKPR))[5]" coefficient="-0.27896814406810827"/>
		</RegressionTable>
		<RegressionTable intercept="-1.3980195191222358" targetCategory="15">
			<NumericPredictor name="pca(standardScaler(ACS), standardScaler(KD), .., standardScaler(APR), standardScaler(FKPR))[0]" coefficient="1.1411810106377682"/>
			<NumericPredictor name="pca(standardScaler(ACS), standardScaler(KD), .., standardScaler(APR), standardScaler(FKPR))[1]" coefficient="-1.8870178920537215"/>
			<NumericPredictor name="pca(standardScaler(ACS), standardScaler(KD), .., standardScaler(APR), standardScaler(FKPR))[2]" coefficient="2.713715797797655"/>
			<NumericPredictor name="pca(standardScaler(ACS), standardScaler(KD), .., standardScaler(APR), standardScaler(FKPR))[3]" coefficient="-0.0904807505610165"/>
			<NumericPredictor name="pca(standardScaler(ACS), standardScaler(KD), .., standardScaler(APR), standardScaler(FKPR))[4]" coefficient="-0.45030594482541775"/>
			<NumericPredictor name="pca(standardScaler(ACS), standardScaler(KD), .., standardScaler(APR), standardScaler(FKPR))[5]" coefficient="-2.7457978222393344"/>
		</RegressionTable>
		<RegressionTable intercept="0.5198705835781233" targetCategory="16">
			<NumericPredictor name="pca(standardScaler(ACS), standardScaler(KD), .., standardScaler(APR), standardScaler(FKPR))[0]" coefficient="-1.164178856545185"/>
			<NumericPredictor name="pca(standardScaler(ACS), standardScaler(KD), .., standardScaler(APR), standardScaler(FKPR))[1]" coefficient="2.29641777733458"/>
			<NumericPredictor name="pca(standardScaler(ACS), standardScaler(KD), .., standardScaler(APR), standardScaler(FKPR))[2]" coefficient="-1.1802218706126646"/>
			<NumericPredictor name="pca(standardScaler(ACS), standardScaler(KD), .., standardScaler(APR), standardScaler(FKPR))[3]" coefficient="-1.0039635983641786"/>
			<NumericPredictor name="pca(standardScaler(ACS), standardScaler(KD), .., standardScaler(APR), standardScaler(FKPR))[4]" coefficient="1.1406477182235712"/>
			<NumericPredictor name="pca(standardScaler(ACS), standardScaler(KD), .., standardScaler(APR), standardScaler(FKPR))[5]" coefficient="-2.229575086807426"/>
		</RegressionTable>
		<RegressionTable intercept="-1.7164652088158985" targetCategory="17">
			<NumericPredictor name="pca(standardScaler(ACS), standardScaler(KD), .., standardScaler(APR), standardScaler(FKPR))[0]" coefficient="1.5997671130338431"/>
			<NumericPredictor name="pca(standardScaler(ACS), standardScaler(KD), .., standardScaler(APR), standardScaler(FKPR))[1]" coefficient="-2.3142963818870106"/>
			<NumericPredictor name="pca(standardScaler(ACS), standardScaler(KD), .., standardScaler(APR), standardScaler(FKPR))[2]" coefficient="1.2122797796629812"/>
			<NumericPredictor name="pca(standardScaler(ACS), standardScaler(KD), .., standardScaler(APR), standardScaler(FKPR))[3]" coefficient="2.0414898400360895"/>
			<NumericPredictor name="pca(standardScaler(ACS), standardScaler(KD), .., standardScaler(APR), standardScaler(FKPR))[4]" coefficient="-1.7352998567704527"/>
			<NumericPredictor name="pca(standardScaler(ACS), standardScaler(KD), .., standardScaler(APR), standardScaler(FKPR))[5]" coefficient="0.3229388429115936"/>
		</RegressionTable>
		<RegressionTable intercept="-1.8583979743625587" targetCategory="18">
			<NumericPredictor name="pca(standardScaler(ACS), standardScaler(KD), .., standardScaler(APR), standardScaler(FKPR))[0]" coefficient="0.8393615692322887"/>
			<NumericPredictor name="pca(standardScaler(ACS), standardScaler(KD), .., standardScaler(APR), standardScaler(FKPR))[1]" coefficient="-0.2497942130194422"/>
			<NumericPredictor name="pca(standardScaler(ACS), standardScaler(KD), .., standardScaler(APR), standardScaler(FKPR))[2]" coefficient="0.48714574798830407"/>
			<NumericPredictor name="pca(standardScaler(ACS), standardScaler(KD), .., standardScaler(APR), standardScaler(FKPR))[3]" coefficient="-1.1714235897512486"/>
			<NumericPredictor name="pca(standardScaler(ACS), standardScaler(KD), .., standardScaler(APR), standardScaler(FKPR))[4]" coefficient="-1.0148085858163431"/>
			<NumericPredictor name="pca(standardScaler(ACS), standardScaler(KD), .., standardScaler(APR), standardScaler(FKPR))[5]" coefficient="0.508985620148637"/>
		</RegressionTable>
		<RegressionTable intercept="-1.3440262424837763" targetCategory="19">
			<NumericPredictor name="pca(standardScaler(ACS), standardScaler(KD), .., standardScaler(APR), standardScaler(FKPR))[0]" coefficient="-1.1405373874824918"/>
			<NumericPredictor name="pca(standardScaler(ACS), standardScaler(KD), .., standardScaler(APR), standardScaler(FKPR))[1]" coefficient="1.739941682067073"/>
			<NumericPredictor name="pca(standardScaler(ACS), standardScaler(KD), .., standardScaler(APR), standardScaler(FKPR))[2]" coefficient="0.08726120265724112"/>
			<NumericPredictor name="pca(standardScaler(ACS), standardScaler(KD), .., standardScaler(APR), standardScaler(FKPR))[3]" coefficient="-0.7034636524603153"/>
			<NumericPredictor name="pca(standardScaler(ACS), standardScaler(KD), .., standardScaler(APR), standardScaler(FKPR))[4]" coefficient="1.20762660763109"/>
			<NumericPredictor name="pca(standardScaler(ACS), standardScaler(KD), .., standardScaler(APR), standardScaler(FKPR))[5]" coefficient="0.36046387705529553"/>
		</RegressionTable>
		<RegressionTable intercept="-1.4412231467337813" targetCategory="20">
			<NumericPredictor name="pca(standardScaler(ACS), standardScaler(KD), .., standardScaler(APR), standardScaler(FKPR))[0]" coefficient="-0.46442310390598596"/>
			<NumericPredictor name="pca(standardScaler(ACS), standardScaler(KD), .., standardScaler(APR), standardScaler(FKPR))[1]" coefficient="0.6777848867872929"/>
			<NumericPredictor name="pca(standardScaler(ACS), standardScaler(KD), .., standardScaler(APR), standardScaler(FKPR))[2]" coefficient="0.15810140748078416"/>
			<NumericPredictor name="pca(standardScaler(ACS), standardScaler(KD), .., standardScaler(APR), standardScaler(FKPR))[3]" coefficient="0.9249349736340998"/>
			<NumericPredictor name="pca(standardScaler(ACS), standardScaler(KD), .., standardScaler(APR), standardScaler(FKPR))[4]" coefficient="0.7369811088427741"/>
			<NumericPredictor name="pca(standardScaler(ACS), standardScaler(KD), .., standardScaler(APR), standardScaler(FKPR))[5]" coefficient="-0.14338900817595424"/>
		</RegressionTable>
	</RegressionModel>
</PMML>
